-8.1027689
0.01200593
3.21598768
1.24100578
0.37200686
-8.37332535
-1.27738643
0.92441958
-2.4059577
-0.38184109
0.16666631
1.14951921
-1.36427045
-2.336339
-2.61010098
-10.27419853
-0.27498919
0.59133404
-1.39248919
0.06318492
-7.20000792
-1.42227936
-2.70982313
-4.27787256
-0.46087095
-0.33152348
0.88010108
-3.9757998
-3.8873632
-2.88062549
-6.60396719
-0.63156706
0.58093369
-1.08902133
2.03547931
-9.17385483
-1.05729818
2.74568129
-2.35741067
-0.03901972
-0.41138482
-0.11123736
-8.29450321
-5.99614573
-2.84278059
-6.62611389
0.98696953
-0.87283617
3.22405696
-0.13477783
-5.33839941
-1.35055447
-1.33936989
-1.7100811
-0.44297901
-2.4606657
1.00875652
-7.36751509
-3.31460857
-2.11963153
-7.10972404
0.03009326
-0.31920189
-0.612378
-0.52352577
-5.88303661
2.32043338
-0.38288784
-5.21327829
-0.40969628
-0.72913575
-0.49516267
-0.90799981
-4.19812918
-2.92965722
-7.40728521
0.43654427
-0.46011525
-0.45282257
-0.12368858
-6.46705437
0.13721114
-0.02634352
-2.67749381
-0.12035894
0.3327868
-0.34476614
-4.86932516
-3.83425689
-2.46970439
